0.922798722765
0.271653937583
0.253880090571
0.0821297922592
0.225818074416
0.172090245378
0.161099051593
0.721004220222
0.765446800736
0.768554034808
0.965415691616
0.0213758939282
0.274667526818
0.499032066149
0.813397213496
0.285522633884
0.372278617897
0.256232146476
0.609561797856
0.144119366103
0.0444854713505
0.450598265911
0.703794950464
0.304813484065
0.750792780965
0.538042453639
0.349519267497
0.420207463258
0.413236647699
0.960986294189
0.0405492058038
0.40658132808
0.0116610532834
0.333719392504
0.676979381034
0.530742861758
0.0688476828702
0.330403721533
0.830614082916
0.678752527773
0.530096442342
0.00831004685669
0.723110483524
0.275845631424
0.423967540303
0.976910899682
0.558611287533
0.0104528553938
0.0874486285284
0.351019791034
0.152380638209
0.741570973694
0.387134055046
0.822579023793
0.0759491422088
0.99349044973
0.974178236488
0.411251985243
0.0902361337648
0.897618799821
0.386822240966
0.0157205902354
0.248902009447
0.459441578921
0.120819266758
0.92061306341
0.402999370219
0.972769549285
0.2826032803
0.468710378316
0.466527726043
0.66190695487
0.690382926305
0.960220759498
0.916209476109
-16909214889.6
-16909203959.8
-16908919537.2
-16909137604.2
-16909238817.1
215989113.442
-16909198837.3
-16909205539.3
-16909186765.6
215990201.202
-16909203570.6
-16909207521.5
215987725.575
-16909245634.1
-16909230978.8
-16909231769.4
-16909246113.9
215987223.736
215987360.361
-16909052063.7
215985232.917
-16909120930.0
-16909232762.9
-16909176957.6
215983977.73
-28170042771.8
-28170024609.3
-28169552077.9
-28169914347.8
-28170082543.5
-136345930.076
-28170016060.3
-28170027226.8
-28169996061.5
-136346464.943
-28170023916.6
-28170030519.1
-136345247.752
-28170093832.2
-28170069489.2
-28170070770.4
-28170094614.5
-136344998.007
-136345065.571
-28169772237.7
-136344015.381
-28169886611.3
-28170072460.0
-28169979734.3
-136343397.106
-30304037016.0
-30304017556.7
-30303511283.0
-30303899423.7
-30304079627.1
265030572.287
-30304008400.6
-30304020362.1
-30303986968.8
265031539.979
-30304016819.9
-30304023890.4
265029335.795
-30304091724.1
-30304065642.2
-30304067018.0
-30304092564.2
265028889.95
265029011.245
-30303747165.5
265027118.937
-30303869709.4
-30304068825.0
-30303969480.2
265026000.964
-15057261322.9
-15057251600.4
-15056998565.2
-15057192567.7
-15057282610.8
379032831.609
-15057247043.1
-15057253004.6
-15057236303.2
379034369.071
-15057251254.3
-15057254768.7
379030869.618
-15057288675.3
-15057275637.9
-15057276340.6
-15057289101.7
379030158.391
379030352.963
-15057116466.6
379027343.662
-15057177732.9
-15057277224.7
-15057227578.0
379025569.313
0.0299249210754
0.368839237529
0.762387749945
0.710076232355
0.502246761423
0.823618485025
0.728409812885
0.0634531146332
0.950770573579
0.182811367492
0.895858076989
0.890666007389
0.314334710897
0.261355168794
0.964161606915
0.761219811133
0.0734360995185
0.777813640465
0.77148521564
0.60713098046
0.746390200709
0.273956158812
0.018917711932
0.316909620172
0.825257242778
0.690082236688
0.228296833448
0.233191683903
0.453244284343
0.70239478847
0.295095982502
0.29065294736
0.370877649541
0.927702078774
0.725660130326
0.913084546778
0.961989836309
0.575713322203
0.282816897068
0.713701161272
0.674161427882
0.932530926513
0.987136466729
0.372971714399
0.904001083021
0.859990254655
0.786069736487
0.959254198539
0.682927818752
0.505883699609
0.154908887367
0.074210100168
0.36667961821
0.976791077001
0.666511930348
0.331360770034
0.918638251775
0.516212268978
0.0379494545768
0.249070061648
0.171005609377
0.601312175194
0.0365608628604
0.466659411721
0.9386996407
0.969030342757
0.36244985953
0.0320913788645
0.218845697563
0.394262171246
0.74973862454
0.883578181189
0.892511858504
0.403805390087
0.004390895936
0.762954371658
0.648931455309
0.918978132873
0.0295294745402
0.789066081633
0.527532169196
0.937744792721
0.971047008036
0.790478103393
0.353159443865
0.170116548939
0.522399583898
0.0503612997127
0.50550125838
0.771359353569
0.636137298996
0.550627464244
0.188011227143
0.288988600553
0.81623680478
0.247850960177
0.680926889235
0.288631170821
0.471962584737
0.979906045017
0.459752530035
0.885897000156
0.685139146561
0.106343069363
0.298770227015
0.775878808948
0.209619317397
0.911329448549
0.44107252395
0.210046547678
0.583282557574
0.00407625356324
0.73854998469
0.524842211789
0.239615954868
0.967967587691
0.635116735914
0.636077074954
0.664436732745
0.826420148478
0.914249290657
0.741353565866
0.848394574052
0.899783014316
0.0596847349527
-18683576607.3
-18683564497.0
-18683249359.2
-18683490974.6
-18683603118.6
109093046.057
-18683558821.5
-18683566246.5
-18683545446.1
109093722.518
-18683564065.5
-18683568442.0
109092181.633
-18683610671.5
-18683594434.7
-18683595309.2
-18683611202.5
109091869.845
109091955.51
-18683396196.8
109090632.151
-18683472499.3
-18683596411.1
-18683534578.4
109089850.606
-11103167994.1
-11103160764.4
-11102972605.9
-11103116866.5
-11103183823.1
153855284.805
-11103157375.5
-11103161809.3
-11103149389.7
153856143.175
-11103160505.1
-11103163119.1
153854189.502
-11103188333.0
-11103178639.3
-11103179161.0
-11103188649.1
153853792.85
153853900.794
-11103060277.0
153852219.087
-11103105835.1
-11103179818.3
-11103142899.1
153851228.197
-28353844328.3
-28353826108.4
-28353352083.6
-28353715498.4
-28353884226.7
201255057.23
-28353817533.1
-28353828735.4
-28353797470.2
201255677.179
-28353825415.8
-28353832037.9
201254263.519
-28353895551.5
-28353871130.7
-28353872416.2
-28353896337.1
201253979.191
201254057.757
-28353572938.6
201252845.454
-28353687674.3
-28353874111.5
-28353781093.2
201252129.309
-26275514104.2
-26275497161.4
-26275056391.4
-26275394310.2
-26275551203.0
136830416.83
-26275489184.6
-26275499603.5
-26275470534.5
136831178.034
-26275496513.4
-26275502673.7
136829442.366
-26275561730.9
-26275539023.8
-26275540217.7
-26275562459.6
136829091.462
136829187.203
-26275261752.3
136827696.67
-26275368435.2
-26275541796.0
-26275455302.2
136826816.159
-15032789536.2
-15032779821.9
-15032527019.9
-15032720843.2
-15032810803.9
268424314.175
-15032775268.5
-15032781226.0
-15032764539.1
268425448.115
-15032779475.7
-15032782987.0
268422866.887
-15032816862.5
-15032803837.9
-15032804539.4
-15032817288.8
268422342.549
268422486.378
-15032644811.8
268420266.74
-15032706022.3
-15032805422.8
-15032755820.8
268418957.689
-12860264146.9
-12860255742.0
-12860037010.3
-12860204711.4
-12860282547.9
221021238.885
-12860251802.6
-12860256956.6
-12860242519.0
221022503.994
-12860255441.6
-12860258480.2
221019624.199
-12860287790.3
-12860276521.4
-12860277127.5
-12860288158.9
221019038.481
221019198.736
-12860138927.1
221016721.045
-12860191888.2
-12860277892.4
-12860234974.8
221015260.286
0.187532773141
0.648593509726
0.362181636881
0.047689822022
0.462512142189
0.0674254899047
0.959076866147
0.0829985804142
0.68955029096
0.846756540674
0.913339346351
0.133134934074
0.762557534594
0.404945404952
0.802697422841
0.134192185686
0.595732136658
0.758906142148
0.988927214743
0.378587768268
0.456525064134
0.638478675724
0.0860332892133
0.131152234778
0.734000114591
0.916168675552
0.00236546670008
0.8402873224
0.380110673281
0.385886109395
0.787874926405
0.144848618973
0.666332878786
0.578296168495
0.367143365038
0.483184786712
0.193238945633
0.908680751247
0.0437537553104
0.996225099475
0.747152404361
0.856832455613
0.511790030742
0.96518375373
0.443720730615
0.904463845263
0.577514697458
0.76692265574
0.41125899433
0.79744924688
0.268643100459
0.407197982902
0.677874032112
0.517609681013
0.106720622449
0.140739181537
0.588082497243
0.659970979692
0.600415757644
0.0982443297299
0.238007809557
0.563478903244
0.132487789136
0.826164741294
0.769659969388
0.629482645569
0.407439664178
0.772938705531
0.197096541009
0.968345735103
0.65650061106
0.295710379491
0.898459462035
0.637091456966
0.320949569618
-16909214889.2
-16909203960.3
-16908919536.5
-16909137604.4
-16909238817.5
215989114.039
-16909198837.3
-16909205538.9
-16909186765.8
215990201.511
-16909203570.8
-16909207521.2
215987725.621
-16909245633.4
-16909230978.6
-16909231768.6
-16909246113.1
215987223.076
215987360.064
-16909052063.8
215985232.91
-16909120930.2
-16909232763.7
-16909176958.1
215983977.091
-13243001151.9
-13242992622.9
-13242770647.5
-13242940835.5
-13243019826.7
234782247.485
-13242988624.0
-13242993854.8
-13242979203.0
234783032.266
-13242992318.4
-13242995401.2
234781243.843
-13243025145.8
-13243013709.3
-13243014325.8
-13243025520.9
234780881.344
234780980.003
-13242874075.0
234779441.549
-13242927821.3
-13243015101.4
-13242971548.1
234778534.775
0.834780449176
0.153420329099
0.707451866841
0.853146969385
0.718694784797
0.317509583975
0.45888886487
0.0390576040332
0.892908821987
0.565262484782
0.782272836635
0.66601381825
0.513695769589
0.52181120943
0.080610298334
0.313193861736
0.905429753377
0.43911595635
0.750975700849
0.924703846185
0.0145088638135
0.556980911279
0.385205413262
0.0207096624388
0.411334711438
-15150070087.9
-15150060391.4
-15149808187.1
-15150001530.1
-15150091327.8
-39553992.4821
-15150055805.0
-15150061784.7
-15150045164.8
-39554160.6646
-15150059995.3
-15150063542.5
-39553783.4216
-15150097330.7
-15150084338.7
-15150085005.1
-15150097740.2
-39553703.3027
-39553724.2676
-15149925683.7
-39553397.0313
-15149986705.5
-15150085929.5
-15150036432.4
-39553205.266
-13200602520.1
-13200594052.7
-13200373845.5
-13200542659.9
-13200621064.8
-166514330.077
-13200590048.9
-13200595270.6
-13200580758.7
-166514443.652
-13200593708.2
-13200596804.7
-166514187.037
-13200626306.2
-13200614963.3
-13200615544.9
-13200626664.2
-166514133.671
-166514146.865
-13200476436.3
-166513924.177
-13200529716.4
-13200616351.5
-13200573134.5
-166513794.667
0.558564694991
0.813126292703
0.745432867663
0.584487474381
0.505693949903
0.0429000555189
0.787688577163
0.997371923968
0.731153516828
0.934891754001
0.572644649885
0.399243092694
0.460607576696
0.369958748432
0.882575781796
0.520630466958
0.861871972329
0.618399256616
0.0718924506382
0.57249380196
0.467882405267
0.879200941415
0.90141883301
0.461505262577
0.383627846327
-16947083785.5
-16947072843.7
-16946788092.1
-16947006410.2
-16947107740.4
75203793.9791
-16947067714.6
-16947074424.4
-16947055629.1
75204114.0616
-16947072452.9
-16947076407.8
75203384.6939
-16947114565.1
-16947099893.8
-16947100684.4
-16947115045.1
75203238.2363
75203278.9254
-16946920770.7
75202653.9253
-16946989716.9
-16947101679.8
-16947045809.2
75202284.7213
-14796659973.1
-14796650332.8
-14796399465.9
-14796591805.4
-14796681076.8
437837581.568
-14796645814.6
-14796651725.6
-14796635167.6
437839087.841
-14796649988.9
-14796653473.0
437835658.929
-14796687090.1
-14796674164.7
-14796674861.2
-14796687512.7
437834962.385
437835152.377
-14796516356.2
437832201.937
-14796577098.3
-14796675737.4
-14796626515.3
437830462.764
0.62476765139
0.675724747027
0.0652848506396
0.343835663416
0.398932813044
0.317973917048
0.190880202111
0.023940877871
0.195326828507
0.923659145688
0.439678590041
0.329780174745
0.185788456403
0.0923722174301
0.902768542696
0.412733091216
0.619771670107
0.41333223577
0.515460335457
0.986729908836
0.085411605984
0.302768991304
0.917491406754
0.798262223493
0.50332721429
-16811019710.2
-16811008813.1
-16810725250.8
-16810942657.7
-16811043565.3
238860062.173
-16811003705.6
-16811010387.3
-16810991671.3
238861137.552
-16811008425.2
-16811012363.5
238858688.413
-16811050361.4
-16811035751.1
-16811036538.8
-16811050838.8
238858190.59
238858326.107
-16810857375.0
238856219.083
-16810926033.1
-16811037529.7
-16810981892.6
238854976.09
-14890019140.6
-14890009468.8
-14889757786.5
-14889950750.8
-14890040312.5
-169132250.991
-14890004935.7
-14890010866.3
-14889994254.9
-169132606.087
-14890009123.7
-14890012619.5
-169131799.125
-14890046345.5
-14890033377.9
-14890034076.8
-14890046768.9
-169131632.813
-169131677.61
-14889875057.2
-169130980.733
-14889935996.0
-14890034956.5
-14889985573.6
-169130570.002
0.0320313121934
0.768179682097
0.373134318979
0.58897547926
0.487419513423
0.999503128287
0.637415522294
0.338240348304
0.914972155299
0.813345663322
0.780717485434
0.274084871901
0.622997114133
0.566112366086
0.363757102357
0.0436164391103
0.768439055089
0.536994697277
0.853241496068
0.703554288964
0.242773074674
0.202493284173
0.299549356238
0.469489583768
0.178912967721
0.028315308303
0.750240394618
0.68113001235
0.250445023376
0.624297655335
0.901839734637
0.00824963335402
0.99964336106
0.727886405894
0.376827435581
0.192238800322
0.00399476026671
0.605052566399
0.770151680375
0.999699450249
0.950899560104
0.0745180775001
0.784362816237
0.942971620284
0.835167064279
0.709847603436
0.718875945573
0.109044016316
0.0991774223525
0.14453526724
-15150070088.0
-15150060391.3
-15149808186.8
-15150001529.5
-15150091326.9
-39553992.9534
-15150055805.5
-15150061784.6
-15150045165.1
-39554160.0006
-15150059995.8
-15150063542.1
-39553783.5615
-15150097330.8
-15150084338.8
-15150085005.5
-15150097740.2
-39553703.5018
-39553724.5179
-15149925683.3
-39553397.0511
-15149986705.7
-15150085929.9
-15150036432.8
-39553205.7438
-13200602519.5
-13200594053.3
-13200373845.5
-13200542659.0
-13200621064.5
-166514329.13
-13200590049.5
-13200595270.6
-13200580758.7
-166514443.607
-13200593708.1
-13200596804.1
-166514187.592
-13200626306.2
-13200614962.9
-13200615544.5
-13200626663.6
-166514133.542
-166514147.335
-13200476436.5
-166513924.889
-13200529715.8
-13200616351.9
-13200573134.5
-166513794.3
0.514911357129
0.306743698371
0.648336689347
0.344254983924
0.716815481964
0.979179031448
0.756444986169
0.43737009805
0.832719949957
0.870798976331
0.0201791100895
0.576245316164
0.825146910864
0.924303828334
0.882525468914
0.16890087783
0.377782651566
0.341429815857
0.706249294274
0.140084281836
0.141657328472
0.882236805088
0.612167818233
0.35482025027
0.207504176654
0.532894202275
0.386485750623
0.762062794137
0.973137086494
0.340263041801
0.0951620388433
0.901170165572
0.801236406203
0.304487005607
0.161447216191
0.754701261456
0.560770483029
0.183878852105
0.503496610204
0.538567771826
0.290805550396
0.713996184067
0.366753808645
0.477910027552
0.216894897459
0.187338701271
0.561323718975
0.970002343134
0.739505709632
0.703968816516
-13039563819.9
-13039555355.3
-13039335061.2
-13039503960.4
-13039582352.4
370671627.948
-13039551387.8
-13039556578.8
-13039542038.1
370672726.917
-13039555053.1
-13039558112.9
370670224.428
-13039587632.4
-13039576282.3
-13039576893.7
-13039588003.1
370669716.254
370669854.007
-13039437706.3
370667700.616
-13039491045.0
-13039577663.7
-13039534440.3
370666431.145
-14796659973.1
-14796650333.2
-14796399465.4
-14796591805.5
-14796681077.4
437837581.122
-14796645815.0
-14796651726.2
-14796635167.1
437839087.372
-14796649988.5
-14796653473.1
437835658.533
-14796687090.2
-14796674165.1
-14796674860.7
-14796687512.6
437834962.414
437835152.54
-14796516356.2
437832202.712
-14796577097.8
-14796675737.5
-14796626515.5
437830463.311
-15172722067.9
-15172712306.0
-15172458269.5
-15172653039.5
-15172743439.2
182099861.9
-15172707730.9
-15172713716.8
-15172696947.9
182100592.292
-15172711958.2
-15172715487.0
182098928.684
-15172749527.3
-15172736438.8
-15172737143.7
-15172749955.9
182098591.42
182098683.44
-15172576637.3
182097255.458
-15172638146.2
-15172738032.4
-15172688188.5
182096411.451
-13243001152.2
-13242992622.3
-13242770648.0
-13242940835.3
-13243019825.9
234782247.394
-13242988623.9
-13242993854.8
-13242979202.9
234783032.527
-13242992318.5
-13242995401.2
234781244.353
-13243025145.7
-13243013709.2
-13243014325.9
-13243025520.6
234780881.214
234780980.295
-13242874075.2
234779441.492
-13242927821.4
-13243015101.4
-13242971548.4
234778534.536
0.332414059773
0.44048915499
0.139384366054
0.407916191841
0.52005855348
0.0675769675488
0.524400400608
0.946107227921
0.468857750865
0.728644576452
0.930596896268
0.233166422037
0.124793695005
0.0281752819335
0.701253382568
0.573851380888
0.768320223997
0.957333719882
0.0201344800791
0.221546401139
0.727463911325
0.813273299843
0.460276927391
0.486205949398
0.250842582696
0.306481743107
0.192767532033
0.476181336452
0.0819351340605
0.812316939572
0.837737055737
0.0460866487609
0.744707020987
0.8151866177
0.943820712351
0.0940813625656
0.811343049284
0.646634413738
0.00397866322761
0.441741440194
0.895507220609
0.483245879851
0.493511586602
0.136413651806
0.69986536359
0.91424351625
0.350933688873
0.458159526787
0.625517498916
0.100432590072
-11586574521.3
-11586567177.3
-11586376166.3
-11586522597.9
-11586590608.3
27574941.8005
-11586563703.8
-11586568232.6
-11586555644.3
27575580.386
-11586566879.0
-11586569564.7
27574120.3242
-11586595154.6
-11586585313.9
-11586585820.0
-11586595466.0
27573826.2383
27573907.558
-11586465153.7
27572652.9408
-11586511370.9
-11586586520.4
-11586549033.6
27571912.7374
-13200602519.6
-13200594053.0
-13200373846.3
-13200542659.7
-13200621064.7
-166514329.625
-13200590049.2
-13200595270.6
-13200580759.5
-166514443.663
-13200593707.6
-13200596804.0
-166514187.127
-13200626306.2
-13200614962.5
-13200615544.6
-13200626663.5
-166514133.008
-166514147.703
-13200476436.0
-166513924.295
-13200529715.6
-13200616351.3
-13200573134.4
-166513794.091
0.393380163463
0.40306491535
0.993666055274
0.090639569504
0.977526340271
0.346403345113
0.225046785178
0.581590347699
0.506048592817
0.768331315764
0.35500850614
0.451216857193
0.540503931684
0.260952220159
0.569418331783
0.63044806462
0.609760154994
0.0485418373005
0.721476867132
0.0487532276794
0.63084884812
0.549122423954
0.57927241464
0.720537947081
0.647472110074
0.449656028458
0.976603949171
0.17446832787
0.140651135028
0.701986184746
0.64129895782
0.618587142743
0.735417356897
0.924657639328
0.618201625479
0.0533071813198
0.852725589239
0.697761131313
0.791902539132
0.167485960665
0.173050085907
0.810187851902
0.806184235651
0.839580062749
0.611645125053
0.559551360222
0.717023000759
0.144389041683
0.130661029437
0.785326331946
-14794986226.0
-14794976585.3
-14794725718.6
-14794918057.3
-14795007329.6
-105431561.601
-14794972066.8
-14794977978.9
-14794961420.0
-105431494.318
-14794976241.3
-14794979725.6
-105431649.935
-14795013342.7
-14795000417.7
-14795001113.9
-14795013765.3
-105431679.379
-105431670.933
-14794842608.8
-105431801.781
-14794903350.2
-14795001990.8
-14794952767.7
-105431880.08
-16811019709.4
-16811008814.0
-16810725250.4
-16810942657.7
-16811043565.2
238860062.143
-16811003705.7
-16811010387.5
-16810991670.8
238861138.035
-16811008425.0
-16811012363.7
238858688.447
-16811050360.9
-16811035751.4
-16811036538.6
-16811050839.2
238858190.329
238858326.447
-16810857375.0
238856219.086
-16810926033.5
-16811037529.2
-16810981892.5
238854976.613
-18683576606.4
-18683564497.5
-18683249359.0
-18683490974.9
-18683603117.9
109093046.085
-18683558821.1
-18683566247.0
-18683545446.0
109093722.789
-18683564064.8
-18683568442.5
109092181.944
-18683610670.7
-18683594434.8
-18683595308.9
-18683611202.0
109091869.572
109091955.785
-18683396196.1
109090631.423
-18683472500.1
-18683596411.1
-18683534578.3
109089850.083
-11284131686.4
-11284124394.3
-11283934628.6
-11284080122.2
-11284147650.7
-32424746.1297
-11284120976.5
-11284125448.4
-11284112922.7
-32424624.58
-11284124134.9
-11284126770.4
-32424903.227
-11284152198.6
-11284142421.7
-11284142948.8
-11284152518.5
-32424957.7551
-32424942.4944
-11284023050.2
-32425178.2956
-11284068997.7
-11284143611.6
-11284106378.3
-32425319.416
0.477699239048
0.725228274593
0.492725595516
0.125290684153
0.0187121967265
0.549842925475
0.644760466912
0.0431922403633
0.693686562779
0.620922743172
0.399293650237
0.129218480313
0.591955404952
0.924717187397
0.0611621472743
0.0879779173037
0.719286363001
0.433646810975
0.429410043917
0.0349519651341
0.173457447954
0.982820173931
0.0802064487634
0.75385977382
0.934863148774
0.750194951709
0.12424751704
0.18595789465
0.183084525883
0.110519850791
0.214689389732
0.40541877345
0.00356083594149
0.430545329636
0.117322624433
0.959310597665
0.0224544962136
0.796798506091
0.185923284354
0.920721022771
0.885931577356
0.778077559066
0.72066146764
0.0379679575041
0.22934086864
0.203683444657
0.700049436368
0.558972141785
0.441487903996
0.442820592265
-11586574521.2
-11586567177.9
-11586376165.8
-11586522598.0
-11586590608.3
27574941.7752
-11586563704.2
-11586568233.1
-11586555644.3
27575580.7365
-11586566878.9
-11586569564.9
27574120.3037
-11586595154.6
-11586585314.3
-11586585819.5
-11586595465.9
27573826.0529
27573907.2218
-11586465153.6
27572653.1853
-11586511370.9
-11586586519.6
-11586549033.2
27571911.958
-13200602520.1
-13200594053.0
-13200373845.9
-13200542659.5
-13200621064.8
-166514329.824
-13200590048.8
-13200595270.3
-13200580759.0
-166514443.589
-13200593707.8
-13200596804.8
-166514187.401
-13200626305.5
-13200614962.5
-13200615544.2
-13200626663.5
-166514133.056
-166514147.504
-13200476435.7
-166513924.115
-13200529716.0
-13200616351.9
-13200573134.0
-166513794.314
0.814631872311
0.0334534760121
0.37722966788
0.533281985395
0.659974664073
0.0149867702058
0.374527002188
0.515484244608
0.837531462559
0.185394617172
0.216834866663
0.719007423371
0.534743846444
0.080271083593
0.575301174411
0.286504124925
0.81087621419
0.631016676561
0.296042355991
0.853172652678
0.35455711767
0.961339627939
0.218764141488
0.753952757746
0.47332166201
0.743519087244
0.00415882064021
0.326312073759
0.587886409196
0.95635250457
0.315027958897
0.556052229476
0.838717271955
0.59275101785
0.590614790036
0.189154987865
0.654317313313
0.719793485267
0.214241788655
0.680360897945
0.907415248046
0.206868517958
0.124187385154
0.254845657948
0.0510523544876
0.73100108419
0.54823789872
0.328460932267
0.0941373086251
0.181071249176
-14817087802.7
-14817078155.4
-14816827101.4
-14817019583.8
-14817108922.2
304605300.702
-14817073633.5
-14817079549.5
-14817062978.3
304606423.672
-14817077810.8
-14817081298.1
304603866.863
-14817114939.7
-14817102005.2
-14817102701.4
-14817115362.7
304603348.863
304603490.331
-14816944078.6
304601292.123
-14817004866.1
-14817103579.7
-14817054319.9
304599995.943
-12718991996.8
-12718983634.4
-12718766023.7
-12718932864.8
-12719010302.8
160224834.472
-12718979715.4
-12718984843.5
-12718970480.2
160225615.492
-12718983335.6
-12718986357.8
160223837.35
-12719015518.3
-12719004307.5
-12719004911.0
-12719015884.5
160223475.909
160223574.905
-12718867418.5
160222043.937
-12718920107.8
-12719005670.8
-12718962973.8
160221142.817
-11427431726.0
-11427424391.2
-11427233504.5
-11427379857.2
-11427447785.2
362710648.7
-11427420953.1
-11427425450.8
-11427412850.8
362711576.606
-11427424129.6
-11427426781.1
362709463.402
-11427452359.7
-11427442524.4
-11427443054.3
-11427452682.2
362709034.934
362709152.314
-11427322447.1
362707335.773
-11427368666.6
-11427443721.7
-11427406269.7
362706264.283
-12860618289.3
-12860609883.5
-12860391152.2
-12860558853.0
-12860636689.0
12091085.5908
-12860605944.3
-12860611098.1
-12860596660.6
12091234.065
-12860609583.7
-12860612622.1
12090895.6551
-12860641932.3
-12860630662.5
-12860631270.1
-12860642299.8
12090827.2387
12090845.7958
-12860493068.8
12090554.5724
-12860546029.3
-12860632034.0
-12860589116.9
12090382.5754
0.696622291622
0.97897233727
0.631468075313
0.526452480838
0.488220923746
0.229034207905
0.767419870477
0.308822572914
0.766483875505
0.568858111884
0.340385940343
0.604935905745
0.265715532088
0.0930637518052
0.0785618434552
0.329262651837
0.390465251215
0.174198677812
0.214165340071
0.457861592926
0.929273869384
0.349757362168
0.18234033026
0.896882069033
0.1325372315
0.646217262455
0.195946737102
0.580959729185
0.758040916046
0.384758618799
0.953773587372
0.725702016459
0.948272215225
0.0818302103077
0.931683097357
0.856384213515
0.0104532414008
0.743638553998
0.356621158451
0.774460864183
0.281273951478
0.203648068757
0.518662618894
0.393192836811
0.339778406934
0.917331531182
0.161404277388
0.367899251823
0.570397878561
0.911463700785
-9594574746.15
-9594568646.97
-9594410005.87
-9594531622.14
-9594588106.81
134494591.622
-9594565762.61
-9594569523.58
-9594559068.44
134495416.746
-9594568399.25
-9594570629.97
134493532.939
-9594591882.31
-9594583709.72
-9594584130.02
-9594592141.27
134493152.577
134493257.163
-9594483913.38
134491638.188
-9594522297.17
-9594584711.75
-9594553577.94
134490683.244
-13136804732.7
-13136796287.2
-13136576640.3
-13136745024.9
-13136823230.5
247277062.756
-13136792293.9
-13136797502.0
-13136783028.1
247277896.563
-13136795942.5
-13136799031.9
247275991.608
-13136828458.0
-13136817144.0
-13136817723.9
-13136828815.4
247275607.073
247275712.159
-13136678970.4
247274074.443
-13136732114.4
-13136818529.3
-13136775421.9
247273108.128
0.993561618663
0.637575585431
0.655793124458
0.4907515165
0.7693804254
0.0188104815748
0.966394149567
0.332945432771
0.668907226667
0.126673208671
0.0413956998889
0.874960652808
0.12624256523
0.789151829572
0.300112659703
0.346537372775
0.24014676746
0.606182059373
0.585381071397
0.484812000384
0.269599901229
0.299127747637
0.0302481381359
0.503041443536
0.78457613775
0.140252999292
0.931158072428
0.024266727887
0.333273449637
0.352760379938
0.885570822241
0.0806004313
0.0179785848179
0.119739171905
0.310834811603
0.585922412705
0.263716424733
0.0309156725127
0.819346126048
0.554155297599
0.60855837945
0.640619019865
0.689136115185
0.321691377207
0.59181833408
0.309450992904
0.147093024138
0.615873977228
0.155457084527
0.641447530823
-12718991996.7
-12718983634.3
-12718766023.2
-12718932865.4
-12719010302.1
160224834.031
-12718979715.4
-12718984842.9
-12718970480.0
160225615.211
-12718983335.2
-12718986358.3
160223838.158
-12719015518.6
-12719004307.8
-12719004910.9
-12719015884.6
160223476.386
160223574.315
-12718867418.9
160222043.793
-12718920107.5
-12719005671.0
-12718962973.8
160221141.957
-16831623041.1
-16831612137.9
-16831328387.6
-16831545937.8
-16831646911.8
272136764.088
-16831607026.6
-16831613712.3
-16831594983.8
272137889.952
-16831611748.6
-16831615690.1
272135326.324
-16831653712.6
-16831639092.9
-16831639880.8
-16831654190.3
272134805.162
272134947.984
-16831460600.0
272132742.385
-16831529303.1
-16831640872.7
-16831585198.3
272131441.715
0.859410483427
0.324950252957
0.0775643631202
0.679827293761
0.895687522462
0.454733151903
0.0184727120117
0.0313587356588
0.678461634757
0.442739303752
0.0653580692902
0.859798513073
0.334866866023
0.670623988481
0.446023315483
0.178280813791
0.689755613241
0.530189813749
0.625923000909
0.374552129626
0.0572273786351
0.622246435135
0.562780536548
0.898818448392
0.511242892692
-14938286264.8
-14938276581.8
-14938024594.0
-14938217792.6
-14938307464.2
289703833.459
-14938272043.0
-14938277980.7
-14938261348.4
289704706.56
-14938276236.6
-14938279737.1
289702716.844
-14938313503.5
-14938300520.5
-14938301220.0
-14938313927.9
289702313.729
289702423.072
-14938142006.8
289700712.983
-14938203019.1
-14938302100.3
-14938252658.9
289699703.469
-15015878113.5
-15015868404.7
-15015615743.6
-15015809458.5
-15015899369.5
233556183.389
-15015863853.4
-15015869806.8
-15015853129.5
233557018.1
-15015868059.3
-15015871568.1
233555116.189
-15015905424.5
-15015892406.0
-15015893107.8
-15015905850.7
233554731.103
233554836.799
-15015733470.3
233553203.022
-15015794645.9
-15015893991.9
-15015844418.0
233552238.734
0.387981666413
0.166179408123
0.526131048655
0.838317500449
0.361857002038
0.616677712297
0.366479813576
0.433053082298
0.0776811215002
0.687891022285
0.784930176713
0.468303982794
0.952659126745
0.711879917155
0.187746346508
0.538213013125
0.255267501383
0.899832006635
0.850942400936
0.25841353329
0.599827497876
0.588220100848
0.947700700023
0.611839318823
0.304973172746
-9594574745.71
-9594568646.75
-9594410006.26
-9594531622.37
-9594588106.96
134494591.567
-9594565762.58
-9594569523.28
-9594559069.19
134495416.772
-9594568399.61
-9594570629.29
134493533.9
-9594591882.94
-9594583710.3
-9594584129.82
-9594592141.88
134493153.22
134493257.179
-9594483913.24
134491638.426
-9594522297.63
-9594584711.6
-9594553577.45
134490683.505
-13136804733.2
-13136796287.3
-13136576640.3
-13136745025.0
-13136823230.0
247277062.317
-13136792293.9
-13136797501.6
-13136783027.2
247277896.44
-13136795942.3
-13136799031.7
247275991.07
-13136828458.1
-13136817144.3
-13136817724.1
-13136828814.9
247275607.011
247275712.475
-13136678970.4
247274075.093
-13136732114.5
-13136818529.2
-13136775421.6
247273108.398
0.247977811457
0.166161724461
0.441838770341
0.735942542735
0.576174138683
0.228307971084
0.237844976863
0.73136813205
0.802117970569
0.226016566471
0.0685295064931
0.624467992495
0.0928769520577
0.987126224189
0.494466056991
0.578584150658
0.97789620765
0.465873431877
0.773897566214
0.907522125607
0.0614999207304
0.569375410907
0.46198683748
0.945174634457
0.884150080824
-15077689152.4
-15077679423.2
-15077426201.7
-15077620346.4
-15077710456.7
245800550.738
-15077674861.4
-15077680828.4
-15077664113.7
245801704.573
-15077679075.9
-15077682593.3
245799077.174
-15077716524.7
-15077703477.8
-15077704181.6
-15077716952.2
245798545.658
245798690.932
-15077544189.1
245796433.899
-15077605500.9
-15077705066.3
-15077655382.9
245795101.791
-14774558395.6
-14774548763.2
-14774298082.5
-14774490278.2
-14774579484.3
27800718.6751
-14774544248.0
-14774550154.9
-14774533608.6
27801169.8936
-14774548419.1
-14774551900.8
27800141.8859
-14774585492.7
-14774572577.5
-14774573272.7
-14774585914.9
27799934.1152
27799991.1259
-14774414886.0
27799108.0063
-14774475582.1
-14774574149.2
-14774524963.0
27798587.2583
0.46767869718
0.75451243273
0.103373876743
0.961647412486
0.790129576658
0.794973400896
0.99668876912
0.972798929234
0.587869713534
0.622136403996
0.0683614382281
0.876930732388
0.334415934898
0.47182204357
0.794743570387
0.589723393493
0.132801265257
0.342182465076
0.0868687385633
0.806453802902
0.272490168713
0.718517404469
0.58060658785
0.778211128315
0.757797742621
0.282942742156
0.597615924711
0.988464861775
0.0986965138723
0.210267732915
0.922046745895
0.0681129789517
0.376114705518
0.884608078918
0.429522409038
0.74046297789
0.0539023258483
0.00109685792507
0.449381784447
0.954286852915
0.586648634786
0.221577815093
0.0942240553308
0.0770455149165
0.22358249432
0.663374621427
0.579932129125
0.0917777908856
0.517655901483
0.46313852004
0.850709490704
0.456476921491
0.601665174752
0.348219553281
0.653889654397
0.939029029428
0.685546215562
0.200468587481
0.963812014676
0.264652120631
0.360982768849
0.482558977477
0.835195727309
0.0975307932126
0.131168836424
0.743405388071
0.520455535304
0.482116010953
0.94417265578
0.722300002167
0.0198153927385
0.18872389754
0.721434634234
0.797667207348
0.556882849118
-12881221619.6
-12881213207.6
-12880994288.6
-12881162133.5
-12881240036.7
45367787.7894
-12881209264.5
-12881214423.1
-12881199973.6
45367986.7269
-12881212907.5
-12881215948.4
45367532.7933
-12881245283.2
-12881234004.3
-12881234612.0
-12881245651.5
45367442.0781
45367467.269
-12881096293.3
45367077.9739
-12881149298.6
-12881235376.7
-12881192422.7
45366848.2156
-18683576606.3
-18683564497.5
-18683249359.5
-18683490974.5
-18683603117.8
109093045.792
-18683558821.0
-18683566247.3
-18683545446.1
109093722.451
-18683564065.2
-18683568442.8
109092181.983
-18683610670.7
-18683594434.9
-18683595309.3
-18683611202.5
109091869.806
109091955.628
-18683396196.6
109090631.591
-18683472500.1
-18683596411.0
-18683534577.9
109089850.821
-22939753211.0
-22939738557.2
-22939357287.3
-22939649591.0
-22939785306.5
566186225.359
-22939731657.0
-22939740668.4
-22939715521.9
566188867.259
-22939737999.0
-22939743327.4
566182849.376
-22939794411.2
-22939774767.5
-22939775802.7
-22939795044.5
566181627.571
566181960.883
-22939534925.5
566176783.532
-22939627208.7
-22939777167.3
-22939702351.5
566173731.264
-30128901812.7
-30128882418.8
-30128377852.8
-30128764680.9
-30128944282.8
442305612.994
-30128873287.6
-30128885213.7
-30128851936.4
442307454.26
-30128881678.0
-30128888729.4
442303257.027
-30128956333.8
-30128930340.5
-30128931707.7
-30128957170.4
442302406.731
442302639.532
-30128612936.9
442299031.955
-30128735061.9
-30128933514.0
-30128834501.6
442296902.324
-18683576606.9
-18683564496.9
-18683249359.1
-18683490974.5
-18683603117.9
109093045.695
-18683558821.1
-18683566246.8
-18683545446.1
109093722.799
-18683564065.6
-18683568442.6
109092181.904
-18683610671.6
-18683594434.7
-18683595309.4
-18683611202.4
109091870.399
109091955.339
-18683396196.8
109090631.419
-18683472499.3
-18683596411.0
-18683534578.6
109089850.627
-14774558395.8
-14774548763.5
-14774298082.7
-14774490279.1
-14774579484.3
27800718.8611
-14774544247.8
-14774550155.2
-14774533608.5
27801169.5446
-14774548418.5
-14774551901.2
27800141.7348
-14774585492.6
-14774572577.2
-14774573272.7
-14774585914.9
27799933.9491
27799990.8187
-14774414886.6
27799108.2706
-14774475583.0
-14774574148.5
-14774524963.1
27798586.8131
0.0766470326018
0.818389847176
0.0763606581782
0.526899128231
0.373351584135
0.942862643684
0.673481026634
0.843890391349
0.651113350816
0.395531518996
0.598730204353
0.831678201521
0.953742345735
0.0824500285573
0.689461045837
0.302962297183
0.800386737319
0.0150854911108
0.16882236545
0.00775240709232
0.371135031155
0.068627800361
0.546812482297
0.974508887604
0.977268948499
0.898563221929
0.67043542768
0.351346986205
0.743746914584
0.0506460969045
0.303431577312
0.376157985295
0.280540592079
0.444981405114
0.426482183584
0.0835508611353
0.336119376845
0.340389222843
0.221803521676
0.996475152473
0.973874352946
0.222922226812
0.789266370864
0.273023276704
0.107069008277
0.0667087915082
0.956073742625
0.176445382166
0.277346365133
0.155863861554
0.439112614193
0.112208801547
0.110524285967
0.292881791025
0.934292306166
0.882064511318
0.697223185861
0.705103296724
0.224628595267
0.699343120588
0.968378186787
0.815549420325
0.322205466753
0.218508894454
0.820807980326
0.939927616857
0.474893584621
0.0416990677484
0.277491098786
0.452722897
0.485139994726
0.527928564749
0.462141004965
0.454774247458
0.417327506767
0.271809618858
0.17906962732
0.406842886912
0.152524991031
0.873521532105
0.348131718626
0.339241541967
0.248693532127
0.955639035064
0.592194217938
0.971257017201
0.363466964314
0.69007339258
0.0656776025137
0.775078477186
0.967824317315
0.381190860486
0.999565076809
0.345779580632
0.41276894776
0.227019235326
0.86890191707
0.66698653756
0.810670854238
0.868605036425
0.560834078207
0.298986328138
0.933617079503
0.436043235193
0.381629952559
0.641383530272
0.679703159691
0.687150304939
0.491518430651
0.823832314905
0.533190660759
0.893566153678
0.522204605995
0.508153000269
0.721627001293
0.261303989712
0.637477176705
0.343664617086
0.745002482013
0.916717134522
0.368859710101
0.152129282826
0.23864808046
0.52442029118
0.210634516935
-13320768501.8
-13320759946.5
-13320537298.3
-13320708002.6
-13320787233.6
345143579.431
-13320755935.6
-13320761182.7
-13320746486.4
345144760.077
-13320759641.9
-13320762734.1
345142072.73
-13320792568.4
-13320781097.0
-13320781715.8
-13320792944.1
345141526.809
345141676.447
-13320641040.5
345139365.539
-13320694950.0
-13320782493.7
-13320738809.2
345138003.09
-31981693129.1
-31981672528.8
-31981136575.4
-31981547468.6
-31981738239.7
232582770.219
-31981662832.1
-31981675498.2
-31981640149.0
232583728.906
-31981671744.5
-31981679233.0
232581541.87
-31981751043.5
-31981723432.4
-31981724886.4
-31981751931.4
232581101.062
232581223.04
-31981386283.9
232579344.961
-31981516009.4
-31981726802.4
-31981621632.0
232578236.663
-31960427549.1
-31960406955.6
-31959871189.1
-31960281938.6
-31960472643.9
412494175.115
-31960397262.6
-31960409924.3
-31960374587.5
412495950.211
-31960406171.8
-31960413657.1
412491904.327
-31960485442.5
-31960457841.4
-31960459295.6
-31960486330.8
412491085.352
412491309.085
-31960120810.3
412487830.635
-31960250490.7
-31960461210.6
-31960356076.4
412485778.819
-11263703856.9
-11263696571.5
-11263506993.0
-11263652343.1
-11263719805.4
100807534.326
-11263693157.1
-11263697624.3
-11263685110.7
100808040.148
-11263696312.4
-11263698945.3
100806889.111
-11263724349.4
-11263714581.0
-11263715107.2
-11263724668.1
100806655.994
100806719.508
-11263595327.6
100805731.484
-11263641229.5
-11263715770.1
-11263678574.0
100805147.812
0.42445117376
0.545082652333
0.554432613715
0.994434021051
0.654143881385
0.0952462217192
0.0815445028313
0.0590436890958
0.0060590927632
0.924345263232
0.647619858244
0.152582835999
0.0884548278479
0.260763264875
0.185874522607
0.408401871101
0.998663094053
0.138951203624
0.522408402864
0.397606205954
0.468106458249
0.606317279069
0.141217131291
0.163862982501
0.689057962133
0.532159101565
0.00489388563747
0.983382947268
0.266293249767
0.177688197735
0.71652281778
0.55490264762
0.658697726748
0.244872715323
0.26485786719
0.699295627822
0.452732753405
0.907443517818
0.0563659741092
0.94323440974
0.394620990552
0.182803020608
0.466202802184
0.351580554602
0.165679907297
0.157840155769
0.0179169581568
0.237199603168
0.847117638568
0.590606571596
0.135327271676
0.750627976598
0.156339871117
0.817619059295
0.179043355315
0.286124587369
0.934207611578
0.626870459815
0.202538154185
0.508769090163
0.894351896217
0.861961713989
0.00811190958449
0.323685365525
0.0353542372984
0.595716240886
0.958467480937
0.920194329114
0.620869843628
0.0495970714339
0.739846640357
0.173045323362
0.823960853761
0.548202867342
0.823567088915
53677.0400028
53545.0480861
53703.3473246
53704.3609017
53555.2535829
53647.1580919
53434.6451533
53623.1035589
53351.8486115
53598.7128411
53441.5215888
53435.6413842
53582.8345175
53567.1955306
53512.4031721
53654.4874844
53721.5076183
53450.3296457
53452.6207498
53376.980206
53669.8409424
53514.1200721
53551.8002164
53551.4776891
53446.9459011
53677.4691136
53545.4754831
53703.8413805
53704.0844203
53554.9012068
53646.5535126
53435.0464863
53622.8114159
53351.5244582
53599.0485075
53440.8504754
53436.0792293
53582.581517
53566.6333185
53512.7277612
53654.2158756
53721.3898065
53450.3761533
53452.8235453
53377.4529788
53669.6277821
53514.15515
53551.5996777
53551.3237316
53447.2049991
53676.3389595
53544.7976637
53703.2187895
53703.1966783
53554.2935621
53645.9198109
53434.754063
53622.29121
53351.4941519
53598.8876512
53441.1053429
53435.7453403
53581.7236168
53566.3361499
53512.5427633
53653.2454796
53720.4264939
53450.2040335
53452.7793399
53377.3493243
53669.4358024
53513.1315683
53551.6306096
53550.8739867
53446.8953031
53676.6993275
53545.1625023
53703.6552017
53703.9692102
53554.4125945
53647.0783192
53434.2776025
53622.3510184
53351.9025978
53599.1486816
53441.0790308
53435.6792694
53582.6610881
53567.4279388
53512.8916515
53653.7704638
53720.9195616
53450.7882136
53452.7556993
53377.1894947
53669.4502478
53513.7583881
53552.1369116
53551.1586661
53446.8657762
53676.9889537
53545.7379528
53703.5624708
53703.9129161
53554.4898567
53647.1297019
53434.5467429
53622.7648458
53352.145719
53599.2437051
53441.1474799
53436.0733283
53582.3719363
53567.1612956
53512.255358
53653.7485422
53721.8638819
53450.941149
53453.0484412
53377.431082
53669.9166575
53513.5574134
53552.4760633
53551.165688
53447.4920574
-40418.363456
-40321.5830113
-40437.4107562
-40438.2298284
-40328.4804042
-40395.6897439
-40241.0937532
-40378.672545
-40180.2877644
-40361.0305649
-40245.9722336
-40242.135079
-40349.0939682
-40337.3575667
-40297.5237185
-40401.5760069
-40450.4976808
-40252.4987143
-40254.6235182
-40199.0118388
-40412.5918336
-40298.2354358
-40327.0023047
-40326.1493348
-40250.5042942
53676.6931408
53545.2071608
53703.2887589
53704.7307174
53555.0378996
53646.6605885
53434.2075101
53623.0793673
53351.7439915
53599.2741686
53440.8528857
53436.4871659
53582.5326725
53566.9426292
53512.7914611
53654.2561276
53721.341553
53450.4503744
53452.8740084
53376.7562351
53669.7979767
53513.5902582
53551.7780889
53551.4863686
53447.7332867
53677.4997273
53545.1684893
53703.440037
53704.4379499
53554.5936873
53646.7762986
53434.4857227
53623.0722997
53351.5626193
53598.4960921
53440.8888953
53435.7660574
53582.6192542
53567.5082444
53512.95572
53653.8551282
53721.7962874
53450.6839214
53452.2322591
53377.3685296
53669.361243
53514.1987376
53552.4439587
53551.3531667
53447.2930627
53677.4481645
53544.8946044
53703.9107295
53703.9155758
53555.1589919
53647.1701475
53434.7754519
53623.1225688
53351.6128413
53598.9674191
53441.1044961
53435.6687514
53582.6090196
53567.5785599
53512.1224869
53654.3257047
53721.1690555
53450.9208681
53452.4089681
53376.6383403
53669.7708586
53513.345691
53551.8817606
53551.4088046
53447.1865916
-40418.3732251
-40322.1462524
-40437.5293425
-40437.9903614
-40328.951909
-40396.0511967
-40240.7780451
-40378.7711784
-40180.4093483
-40361.1263717
-40245.8508147
-40241.7298333
-40349.2969645
-40338.0555565
-40297.4415499
-40401.46694
-40450.5833078
-40252.9676776
-40253.9567453
-40199.2350438
-40412.5819664
-40298.6493856
-40326.8716548
-40326.6182618
-40250.5282379
53676.7827192
53545.0332223
53703.2645945
53703.9152682
53555.1862064
53647.2596768
53434.8936632
53622.8674983
53352.182905
53599.2282859
53441.4092715
53436.0758779
53582.3917111
53567.3984506
53512.2973788
53653.9415997
53721.5657528
53450.9264205
53452.7902089
53376.7603368
53669.2823497
53513.6005021
53551.5189753
53551.5919405
53447.6216641
53676.8999753
53544.9797946
53703.7966774
53704.1723356
53555.0710697
53646.4328115
53434.8798877
53623.0434663
53352.1080403
53599.0434937
53441.5846009
53435.9861603
53582.3936943
53566.6845352
53512.3601521
53654.1090613
53721.7155998
53450.8781513
53452.7255627
53377.0815727
53669.4780802
53513.9042112
53551.7571061
53551.1453717
53447.7104253
-40417.2230752
-40321.6969126
-40436.5949518
-40437.8051578
-40328.8340043
-40396.0856421
-40241.2059037
-40378.021653
-40180.9168769
-40360.4708569
-40245.5886595
-40242.2707838
-40349.0758818
-40337.035057
-40298.0000886
-40401.3828305
-40450.4617059
-40252.9017459
-40254.2273084
-40198.987519
-40411.8463137
-40298.8072042
-40326.9709235
-40326.3074633
-40249.9072524
53677.0116562
53545.0303176
53703.934998
53704.7099046
53554.5739508
53647.1706589
53434.4644695
53623.1693206
53352.2244488
53599.4680737
53441.4943834
53436.6000923
53582.6238903
53566.7223657
53512.824719
53653.8024513
53721.7210953
53450.8287356
53452.660667
53376.5945364
53669.3629457
53513.5870149
53551.5368669
53551.5752686
53447.7442875
53677.4886495
53545.3079122
53703.2225354
53703.9872947
53555.042434
53647.0010333
53434.4392266
53623.1789427
53351.3896475
53599.1666045
53441.4185457
53435.7951304
53582.7349798
53567.2969109
53512.3308853
53653.9982775
53721.8480219
53451.1562092
53452.492212
53376.9906834
53669.9835626
53513.8750335
53552.2829598
53551.4841811
53446.944624
53677.2097559
53545.0669512
53703.707992
53704.4267704
53554.7817769
53647.3287369
53434.707469
53622.4580423
53351.8599765
53598.929888
53441.6139509
53435.9438645
53582.5857617
53566.7805096
53512.6311262
53653.8657819
53721.1131449
53450.8798946
53452.2520177
53377.1288857
53670.0767053
53513.7055102
53552.3847623
53552.0392183
53447.4131407
53676.6693188
53545.0092345
53703.1506463
53704.6641873
53554.8929368
53647.2167701
53434.7769655
53622.5388827
53352.152082
53598.585682
53441.5836497
53436.4767819
53582.6454031
53566.8014864
53512.0041557
53654.5873287
53721.1003521
53450.8273569
53452.830522
53377.0776591
53669.9124507
53514.1287219
53552.1907706
53551.9208679
53447.7172893
-40417.6923489
-40321.9652407
-40437.4429405
-40437.6767763
-40328.2531569
-40395.9233001
-40241.0598895
-40378.5741976
-40180.9045247
-40360.3599708
-40245.3488518
-40241.8301029
-40348.622639
-40337.9134162
-40297.1937819
-40400.6227026
-40450.4270775
-40252.8943323
-40254.4775852
-40198.8775041
-40412.1390476
-40298.308111
-40326.9299075
-40325.8708527
-40250.2269186
-40417.7012587
-40321.28677
-40437.1619397
-40437.3433941
-40328.7111053
-40395.5555559
-40241.1578445
-40378.1492195
-40180.3779989
-40360.3059336
-40245.4489989
-40242.0028551
-40349.3555018
-40337.4200371
-40297.3373112
-40401.1725951
-40450.557957
-40252.5775322
-40254.3219501
-40199.127181
-40412.752726
-40298.4127892
-40327.0890574
-40326.0550658
-40250.4482125
53677.1011465
53544.9630748
53702.9986909
53703.7324291
53554.7127
53646.9361277
53434.2620924
53622.8816768
53351.9237099
53598.3740692
53440.5914854
53435.499626
53582.4218063
53566.7715032
53511.7808574
53653.3340154
53721.3505034
53450.9602503
53452.8699993
53377.0597259
53669.7278693
53513.6661608
53551.3970776
53551.4797742
53447.0263809
-40417.8001355
-40321.7012617
-40436.8287546
-40436.9356832
-40328.4070362
-40395.8759945
-40241.3620489
-40378.4822769
-40180.1693059
-40360.1095473
-40245.5947267
-40242.2070828
-40348.8566871
-40337.5852865
-40297.8159297
-40400.6528296
-40450.0949808
-40252.312064
-40253.6739635
-40198.5475636
-40412.2924967
-40298.4922102
-40325.9553768
-40325.4045796
-40250.0730433
53676.938453
53544.7696503
53702.9600766
53704.2889304
53555.2627316
53646.6597682
53434.0739132
53622.9352327
53351.9004855
53598.5842779
53440.9039049
53436.0429324
53582.5559162
53567.121015
53512.547965
53653.8305613
53721.497613
53450.9827738
53452.5438214
53377.1361029
53669.2976934
53513.3605673
53551.6228061
53551.713829
53447.0004096
53677.2896892
53545.4860731
53703.4937131
53704.0086805
53554.9587716
53646.7790698
53435.0640995
53623.089701
53351.7607324
53598.8190109
53441.4210484
53436.1433624
53583.0397441
53566.6113322
53512.575322
53653.6488411
53721.5392804
53450.4089089
53452.7247165
53376.6577937
53669.7530729
53514.1279788
53552.1523771
53551.9912742
53447.3876146
53676.7048781
53545.426
53703.0050666
53704.2918043
53554.4024372
53646.8936148
53434.8024062
53622.7100649
53351.7767808
53599.1914304
53441.4602873
53436.2075587
53582.0838824
53567.3228991
53512.6276464
53654.5345904
53721.0932583
53450.2750555
53453.0126078
53377.3093901
53669.2850093
53513.8711148
53551.5495538
53551.3251003
53447.578968
-40417.6742002
-40321.4725549
-40436.5566907
-40436.8993598
-40327.7714555
-40395.0591755
-40241.0728252
-40377.6831281
-40180.676812
-40359.873381
-40245.3857115
-40241.8496524
-40348.8977554
-40336.7599959
-40297.7334285
-40400.8206172
-40450.0248425
-40252.4950519
-40254.1280436
-40198.6982518
-40412.4371547
-40298.5705635
-40326.2906524
-40325.8381683
-40249.853731
235.60168951
228.042987595
235.539235439
227.527657815
235.706008627
228.051745767
235.932207844
227.821346078
235.8410636
227.258018931
235.531023989
227.98320648
235.049420964
227.546922495
235.288320412
228.127911244
235.040993555
227.191224763
235.772800861
227.522380264
235.160127164
227.461210342
235.203442078
227.394236163
235.234567147
228.006978969
235.658519449
227.50015486
235.526665771
227.396120874
235.480338559
228.067717509
235.759700522
228.074773087
235.490280442
227.162208174
235.055777508
227.619896964
235.034488481
227.308985583
235.765377411
227.841751947
235.73669583
227.18435982
235.258600338
227.847480648
235.844982936
227.239054388
235.312261935
227.331375756
